tree
version=v2
num_class=1
num_tree_per_iteration=1
label_index=0
max_feature_idx=27
objective=regression
feature_names=Column_0 Column_1 Column_2 Column_3 Column_4 Column_5 Column_6 Column_7 Column_8 Column_9 Column_10 Column_11 Column_12 Column_13 Column_14 Column_15 Column_16 Column_17 Column_18 Column_19 Column_20 Column_21 Column_22 Column_23 Column_24 Column_25 Column_26 Column_27
feature_infos=[0.27500000000000002:6.6950000000000003] [-2.4169999999999998:2.4300000000000002] [-1.7429999999999999:1.7429999999999999] [0.019:5.7000000000000002] [-1.7429999999999999:1.7429999999999999] [0.159:4.1900000000000004] [-2.9409999999999998:2.9699999999999998] [-1.7410000000000001:1.7410000000000001] [0:2.173] [0.19:5.1929999999999996] [-2.9039999999999999:2.9089999999999998] [-1.742:1.7429999999999999] [0:2.2149999999999999] [0.26400000000000001:6.5229999999999997] [-2.7279999999999998:2.7269999999999999] [-1.742:1.742] [0:2.548] [0.36499999999999999:6.0679999999999996] [-2.4950000000000001:2.496] [-1.74:1.7429999999999999] [0:3.1019999999999999] [0.17199999999999999:13.098000000000001] [0.41899999999999998:7.3920000000000003] [0.46100000000000002:3.6819999999999999] [0.38400000000000001:6.5830000000000002] [0.092999999999999999:7.8600000000000003] [0.38900000000000001:4.5430000000000001] [0.48899999999999999:4.3159999999999998]
tree_sizes=2487 2553 2560 2561 2558

Tree=0
num_leaves=31
num_cat=0
split_feature=25 26 27 25 25 24 22 5 5 26 27 25 27 26 27 24 3 25 22 24 9 13 0 22 24 5 22 21 19 25
split_gain=64.2638 41.1203 38.5382 15.7445 17.6357 13.1388 20.9834 8.97069 8.36848 6.92699 6.62141 6.49419 6.44669 5.50946 5.46418 8.41181 4.38059 4.94552 3.60298 3.34893 3.11721 3.07026 2.99209 2.7582 2.56508 2.53483 2.53105 2.36963 2.22015 2.16124
threshold=1.2815000000000003 0.78050000000000008 0.90450000000000019 0.98450000000000004 0.67850000000000021 1.0265000000000002 1.0445000000000002 0.82550000000000001 1.0195000000000001 0.86950000000000005 0.78850000000000009 0.62350000000000005 0.75650000000000006 0.88850000000000018 0.88950000000000007 1.1225000000000003 1.6175000000000002 1.0115000000000001 0.94750000000000012 0.71850000000000003 1.0555000000000001 0.96150000000000013 1.1195000000000002 1.1705000000000003 0.82250000000000012 1.2445000000000002 1.0285000000000002 0.93450000000000022 0.43000000000000005 1.1155000000000002
decision_type=2 2 2 2 2 2 2 2 2 2 2 2 2 2 2 2 2 2 2 2 2 2 2 2 2 2 2 2 2 2
left_child=1 7 3 4 21 6 22 19 13 10 -6 -7 -9 -5 18 26 17 25 -2 28 -8 24 -4 -17 -3 -13 -16 -21 -1 -19
right_child=14 2 5 8 9 11 20 12 -10 -11 -12 16 -14 -15 15 23 -18 29 -20 27 -22 -23 -24 -25 -26 -27 -28 -29 -30 -31
leaf_value=0.52917142842497145 0.52042998804716734 0.53797765190446223 0.51950765573357438 0.51981816153682081 0.54510850939454336 0.52481117997776638 0.5297153550865451 0.53613246738601039 0.54359999985354279 0.54912120966902689 0.5308360246982633 0.53847270140941272 0.52114120864475166 0.53374466531466402 0.51013246738601037 0.52034481991897352 0.52889529115442069 0.52648409688858322 0.53276256142989753 0.51600493304984296 0.5399142855678285 0.54156918752861283 0.50947301572655868 0.529524369601442 0.52816043941398239 0.54711089573732008 0.51825986379912103 0.52416161381210336 0.52005502630856926 0.5365572762220342
leaf_count=175 121 101 181 129 277 161 187 231 112 751 115 303 104 158 275 262 179 106 116 278 125 102 126 119 195 118 147 131 108 107
internal_value=0 0.0542306 0.105429 0.200071 0.245911 -0.00982764 -0.123749 -0.121899 0.0230276 0.309038 0.201286 0.062572 0.0124264 -0.0674425 -0.221242 -0.260621 0.0989092 0.137913 -0.0878192 -0.186927 0.0588864 0.0646202 -0.309359 -0.152904 0.0130618 0.200734 -0.357871 -0.244794 -0.103295 0.0137438
internal_count=5600 4560 3533 1940 1541 1593 619 1027 399 1143 392 974 335 287 1040 803 813 634 237 692 312 398 307 381 296 421 422 409 283 213
shrinkage=1


Tree=1
num_leaves=31
num_cat=0
split_feature=25 26 25 25 3 5 5 26 22 22 22 26 25 24 24 26 3 13 18 13 14 5 19 22 10 6 23 9 9 25
split_gain=57.998 37.1843 19.8262 29.4191 9.34667 8.4603 4.7438 5.4863 4.6645 4.73151 4.61532 4.37175 4.03803 3.47384 3.31265 3.1719 3.10299 2.42538 2.29415 3.17421 2.18192 2.14288 1.99412 1.96877 1.85961 1.68282 1.55468 1.71149 2.96745 1.46951
threshold=1.2815000000000003 0.77650000000000008 0.62350000000000005 0.98950000000000016 1.6175000000000002 0.82550000000000001 0.88150000000000006 1.0375000000000003 1.0025000000000002 0.84950000000000003 1.0445000000000002 0.97650000000000003 0.58150000000000002 0.95950000000000013 0.71850000000000003 1.3345000000000002 1.1435000000000002 0.75750000000000017 0.058500000000000003 0.96150000000000013 0.37750000000000006 1.2495000000000003 0.43000000000000005 0.87550000000000006 0.039500000000000007 0.14450000000000002 0.99950000000000017 0.68650000000000022 0.94750000000000012 0.7985000000000001
decision_type=2 2 2 2 2 2 2 2 2 2 2 2 2 2 2 2 2 2 2 2 2 2 2 2 2 2 2 2 2 2
left_child=1 5 18 4 6 14 16 29 9 -5 11 -2 -7 -13 22 -12 26 -6 19 -3 -10 -9 -1 -15 -20 -11 27 -4 -29 -8
right_child=10 2 3 8 17 12 7 21 20 25 15 13 -14 23 -16 -17 -18 -19 24 -21 -22 -23 -24 -25 -26 -27 -28 28 -30 -31
leaf_value=-0.0016030797724089871 -0.004627459805745345 -0.010642236067774547 0.012901595542207362 0.001221745116291223 0.0075383256463443533 -0.0049935036539276948 0.012948891500631969 0.0040337224239073459 0.0060090129271797516 -0.00528118729225697 -0.00058904977727539934 -0.019301827619841071 0.0061737118535731212 -0.0063067498430609704 -0.012018239505607682 -0.01014285393329482 0.0031107443169905592 -0.0020741243887206786 -0.0047470638418898869 0.00038689843872014213 -0.0025009804937456337 0.012350649164607194 -0.010262011571062936 -0.01443866558981185 0.0031283743099538154 -0.013064439262240386 0.013984765520980281 0.0019789279291504308 0.011293835746265992 0.017975478976457369
leaf_count=173 130 181 160 216 102 158 225 159 230 163 158 243 166 120 399 193 208 184 136 102 112 151 108 196 167 121 186 171 171 411
internal_value=0 0.051519 0.0995016 0.132669 0.195274 -0.118427 0.221388 0.270777 -0.0255527 -0.0871093 -0.21018 -0.257727 0.0145594 -0.296141 -0.181791 -0.116846 0.169243 0.0270818 -0.0685987 -0.133341 0.0644423 0.161697 -0.0986214 -0.227012 -0.00812952 -0.171946 0.201601 0.172665 0.132728 0.323944
internal_count=5600 4560 3556 2970 2128 1004 1842 946 842 500 1040 689 324 559 680 351 896 286 586 283 342 310 281 316 303 284 688 502 342 636
shrinkage=0.05


Tree=2
num_leaves=31
num_cat=0
split_feature=27 26 24 22 5 3 5 26 22 27 24 22 22 26 27 24 27 5 3 24 26 0 24 26 9 5 26 7 19 21
split_gain=36.783 45.5931 22.2824 23.3795 10.2069 7.23848 6.73382 4.7563 4.66411 5.4724 3.36921 3.27349 3.92816 3.24183 3.12145 2.68197 2.62021 2.49736 2.41936 2.38017 2.0986 2.85445 2.04943 2.02465 2.57683 1.96113 2.88829 1.95293 1.89037 1.85306
threshold=0.90250000000000019 0.81150000000000022 1.0265000000000002 1.0445000000000002 0.82050000000000012 1.9205000000000003 0.89650000000000019 1.3665000000000003 1.0355000000000001 0.83850000000000013 0.79350000000000021 1.0465000000000002 0.76950000000000018 0.77250000000000008 1.0885000000000002 0.71850000000000003 0.75650000000000006 1.4930000000000001 0.57250000000000012 0.97750000000000015 0.86950000000000005 0.70450000000000002 1.1745000000000003 0.97250000000000003 0.85950000000000004 1.2885000000000002 1.0925000000000002 -0.18949999999999997 0.43000000000000005 0.93450000000000022
decision_type=2 2 2 2 2 2 2 2 2 2 2 2 2 2 2 2 2 2 2 2 2 2 2 2 2 2 2 2 2 2
left_child=1 4 3 14 13 11 8 10 9 20 -5 12 -4 15 -2 28 18 23 -6 -11 27 -22 -14 -8 -25 26 -13 -3 -1 -17
right_child=2 6 5 7 16 -7 17 -9 -10 19 -12 25 22 -15 -16 29 -18 -19 -20 -21 21 -23 -24 24 -26 -27 -28 -29 -30 -31
leaf_value=-0.001679621834352792 -0.013954029349486034 -0.0018477419923458782 0.0076170639328236858 0.0095334657997477295 0.011206744836186465 -0.0099134476178071723 0.012145551199498384 -0.0090374998158688179 0.011983065426881824 -0.0079810656200755732 -0.0016521982397093918 0.0080916786116772676 -0.0079317914372360378 -0.0010314388756166425 -0.021603101916647188 -0.013999335479736329 -0.0038277752093366676 0.01842192798330073 0.0016347787380218506 0.0021613541807307571 0.0026121314201090072 0.012647892129652708 -0.001178017926957986 0.011908570757089568 0.0016522345042997791 0.0080797459201320358 -0.0016138798961069731 0.0070533485960786362 -0.010251556464603968 -0.0064405020078023281
leaf_count=166 375 112 106 102 106 176 575 139 224 110 198 116 148 171 207 250 111 114 175 122 108 206 466 121 124 184 226 137 105 120
internal_value=0 0.0740661 -0.0893589 -0.202067 -0.0789897 -0.00843387 0.168423 -0.027833 0.112206 0.0762945 0.0430186 0.0183807 -0.0254292 -0.142963 -0.333492 -0.175598 0.0535264 0.229756 0.104911 -0.052951 0.129554 0.183922 -0.0561193 0.210476 0.134352 0.0783487 0.0335613 0.0609929 -0.100017 -0.230956
internal_count=5600 3157 2443 1021 1204 1422 1953 439 1019 795 300 1246 720 812 582 641 392 934 281 232 563 314 614 820 245 526 342 249 271 370
shrinkage=0.05


Tree=3
num_leaves=31
num_cat=0
split_feature=25 26 27 25 25 25 26 24 22 27 5 22 27 27 3 5 25 5 21 3 13 22 9 24 21 25 18 19 13 21
split_gain=51.1127 36.3829 29.1979 11.8208 10.8549 9.75321 7.43492 7.08665 13.9763 6.85442 6.48466 5.98335 6.19328 5.67977 5.56159 5.39175 3.92302 3.15926 3.12675 2.64251 2.58714 2.5771 2.27506 2.24747 2.2213 2.11962 1.97321 1.88575 1.75577 1.55731
threshold=1.0565000000000002 0.78050000000000008 0.90450000000000019 0.67850000000000021 1.4915000000000003 0.62350000000000005 0.86950000000000005 1.0065000000000002 0.99950000000000017 0.78250000000000008 0.82550000000000001 1.0025000000000002 1.0445000000000002 0.75650000000000006 1.6740000000000002 0.91550000000000009 0.86450000000000016 1.2445000000000002 1.0475000000000001 0.45550000000000007 0.96150000000000013 1.0735000000000003 0.88850000000000018 0.82250000000000012 1.0835000000000001 0.98450000000000004 -0.89249999999999996 -0.065499999999999989 1.3895000000000002 0.93750000000000011
decision_type=2 2 2 2 2 2 2 2 2 2 2 2 2 2 2 2 2 2 2 2 2 2 2 2 2 2 2 2 2 2
left_child=1 10 3 20 11 18 9 8 -7 16 19 12 15 22 17 27 -5 29 -4 -1 23 -6 -12 -3 -10 -8 -21 -2 -13 -9
right_child=4 2 5 6 21 7 25 14 24 -11 13 28 -14 -15 -16 -17 -18 -19 -20 26 -22 -23 -24 -25 -26 -27 -28 -29 -30 -31
leaf_value=-0.0019349936781258418 -0.013511191611572848 0.0064475568656874177 -0.011930081717083964 0.01632635461787383 -0.014107023537913455 -0.014236784401612405 0.016253055274962746 0.0091054063170186942 0.010513727227661099 -0.0014386022211732093 0.00062227469532429676 -0.00089483643628628323 -0.016008576089647456 -0.0088965807539912369 -0.0032444903527507349 0.0021314597340545273 0.0043070408045698741 0.015034580414111799 -0.0011461350790880345 -0.015802957848006605 0.0096274507396361415 -0.0075690509169889265 0.010853203415870667 -0.0027417978185873769 0.00039524243636564779 0.0086043243269318514 -0.0080500102823688868 -0.0047648898390836502 0.0068969572931528098 0.0025048757361811262
leaf_count=145 118 101 178 180 474 156 751 186 107 148 119 261 142 104 131 198 109 130 108 102 102 221 100 195 110 103 420 129 100 172
internal_value=0 0.0641944 0.119584 0.205875 -0.14563 0.00554118 0.252325 0.052448 -0.0564339 0.146238 -0.101805 -0.0760345 -0.138337 0.014497 0.118059 -0.0803129 0.235862 0.16717 -0.157156 -0.158125 0.0552037 -0.240561 0.105879 0.00787518 0.107691 0.306611 -0.191299 -0.178866 0.0252711 0.118684
internal_count=5600 3957 2967 1689 1643 1278 1291 992 373 437 990 948 587 323 619 445 289 488 286 667 398 695 219 296 217 854 522 247 361 358
shrinkage=0.05


Tree=4
num_leaves=31
num_cat=0
split_feature=25 26 27 24 22 25 25 5 3 27 25 24 27 26 21 9 9 5 21 26 5 3 25 0 22 18 1 25 24 0
split_gain=46.1627 29.7414 30.5576 9.82271 15.2128 7.42676 10.8404 6.64799 5.16192 4.96854 4.71287 4.34734 5.65389 3.78326 3.20723 3.04465 2.96301 2.95498 2.88734 2.84375 2.79528 2.74212 3.57871 2.34928 2.17449 2.14552 2.1617 2.03017 1.95801 2.12777
threshold=1.2185000000000004 0.81150000000000022 0.90250000000000019 1.0265000000000002 0.99650000000000005 0.98450000000000004 0.67850000000000021 0.70450000000000002 1.8335000000000001 0.80650000000000011 0.62350000000000005 1.3545000000000003 1.0855000000000004 0.95850000000000002 0.94450000000000001 0.9105000000000002 0.99050000000000005 0.87650000000000017 0.72750000000000015 0.86950000000000005 0.64750000000000008 1.6175000000000002 1.0115000000000001 1.1195000000000002 1.0465000000000002 -0.91949999999999987 0.86150000000000004 0.8175 0.79350000000000021 0.82750000000000001
decision_type=2 2 2 2 2 2 2 2 2 2 2 2 2 2 2 2 2 2 2 2 2 2 2 2 2 2 2 2 2 2
left_child=1 7 5 4 23 6 15 20 11 16 -5 12 14 -7 18 -3 -9 19 -2 -8 25 22 27 -4 -13 -1 -27 -12 -6 -30
right_child=8 2 3 10 28 13 17 9 -10 -11 21 24 -14 -15 -16 -17 -18 -19 -20 -21 -22 -23 -24 -25 -26 26 -28 -29 29 -31
leaf_value=-0.012400225105635617 -0.002573902753450103 -0.0007816867783982704 -0.010625837732861926 -0.0048232205785237832 0.0066445305216603166 -0.0015108424824537691 0.0058127816476507823 -0.00045841197361764699 -0.019498479337084526 -0.0092278636815979736 0.0044343021402998666 -0.0061380863581833095 -0.015613302807249721 0.0096707900204966151 -0.0012119420637955536 0.0091701194185477043 0.0082735286178913982 0.016540741809876636 -0.011864940915581242 0.013768790232196843 -0.014982566320233877 -0.00088559018763882376 0.00035953247014370714 -0.020615993663668633 0.0039109164593266509 -0.0024939973506641691 -0.010893736469863665 0.011538422950185263 0.0041223085248002821 -0.0056630376421037271
leaf_count=109 118 188 143 156 123 194 167 368 102 127 164 114 252 124 185 130 132 512 287 343 108 171 179 100 102 317 101 260 102 122
internal_value=0 0.0489093 0.100485 -0.00192788 -0.102855 0.194373 0.226977 -0.0809689 -0.175127 -0.00792754 0.0621014 -0.154415 -0.186882 0.0569858 -0.133328 0.0657332 0.0369364 0.277149 -0.183158 0.223272 -0.15309 0.0940604 0.125757 -0.29474 -0.0278545 -0.123055 -0.090472 0.175812 0.0315194 -0.0241442
internal_count=5600 4440 3178 1520 590 1658 1340 1262 1160 627 930 1058 842 318 590 318 500 1022 405 510 635 774 603 243 216 527 418 424 347 224
shrinkage=0.05



feature importances:
Column_25=23
Column_26=18
Column_22=17
Column_5=16
Column_24=16
Column_27=15
Column_3=9
Column_9=7
Column_21=7
Column_13=5
Column_0=4
Column_19=4
Column_18=3
Column_1=1
Column_6=1
Column_7=1
Column_10=1
Column_14=1
Column_23=1
